24 100
sent_0 -0.002324 0.006165 -0.004458 -0.000022 -0.004728 -0.007010 -0.003853 -0.005052 0.000051 0.001086 -0.000408 0.000759 -0.005666 0.003287 -0.009405 0.001707 -0.000413 0.001944 -0.003466 -0.001986 0.001169 0.005142 -0.006511 0.005579 0.005713 -0.000073 -0.005271 -0.003884 -0.003938 0.006279 -0.007669 -0.001466 0.003749 -0.001983 0.008228 -0.003003 0.000461 0.004481 -0.005861 0.006282 0.003550 0.002906 -0.005922 0.004743 -0.007712 -0.001384 0.005574 -0.004009 0.001202 -0.009355 -0.013481 0.009932 -0.003749 -0.007800 -0.003549 -0.005516 0.004256 -0.003315 0.002691 0.004426 -0.005555 0.000200 0.006005 0.000775 -0.002665 -0.001669 0.002021 0.002045 0.011170 -0.001936 0.002735 0.000493 -0.005341 0.007908 0.000155 -0.003996 0.002969 -0.001386 0.001628 0.003751 0.005042 -0.000067 0.010407 -0.009974 -0.006109 0.006664 -0.001761 -0.000006 -0.001749 0.010544 -0.006247 0.009389 0.001112 -0.001442 -0.001761 0.000289 -0.000893 0.000929 -0.004277 0.000202
sent_1 -0.001685 0.000629 0.003994 -0.001105 0.003770 0.001177 -0.004964 0.004012 0.001852 0.004998 -0.003304 -0.003619 0.004100 0.001771 -0.004738 0.002550 0.002646 0.004255 0.002223 -0.003563 -0.004909 -0.004644 -0.005090 -0.002330 0.003726 -0.000156 0.000336 0.003464 -0.003755 -0.001857 0.000516 0.004699 0.000559 -0.005036 0.003667 -0.002863 0.003044 -0.001080 0.003584 0.002583 0.000575 -0.003613 -0.004682 -0.003555 -0.004741 -0.003922 -0.002494 0.002073 0.000909 -0.005349 -0.005061 0.005373 0.000695 -0.003351 -0.002631 0.002513 -0.002605 0.000696 0.004804 0.003583 -0.002865 0.000198 0.001424 0.003372 -0.003029 -0.004936 -0.004092 0.000046 0.001564 0.000511 -0.001840 0.005106 0.000606 -0.000844 0.000673 0.002359 0.001545 -0.002386 -0.004354 -0.001247 0.001398 -0.002898 0.003243 -0.004977 -0.002677 0.003274 -0.003134 0.000836 -0.000180 0.005089 -0.002625 -0.003708 0.002428 0.002497 0.003944 0.004643 -0.005160 -0.002423 0.001438 0.004320
sent_2 0.004582 0.000583 0.004187 0.001423 -0.001100 -0.000078 0.000945 0.000538 0.004224 0.004217 -0.001076 0.004688 -0.003189 -0.003739 -0.003620 0.000027 -0.004763 0.004472 0.003285 -0.004857 -0.003280 -0.001732 -0.003732 0.003003 -0.001548 0.004406 0.000807 0.003863 0.003443 0.004087 -0.000381 0.000508 0.002975 -0.002178 -0.000125 0.000946 -0.004803 0.000893 -0.000553 0.003003 -0.001801 0.003872 0.000801 -0.003208 0.002945 0.001135 -0.004469 -0.000730 0.001758 0.004204 -0.004928 0.004743 -0.001202 0.004838 0.001135 0.003358 0.000712 0.001288 -0.002165 0.000872 0.002485 0.003562 0.002485 0.002023 0.003655 -0.001804 0.001745 -0.000552 -0.001259 -0.000866 -0.000975 -0.001869 0.001234 -0.000719 0.004761 0.001749 -0.002944 -0.000745 -0.001614 0.002948 0.003782 0.004117 0.001576 -0.002248 -0.002505 0.003572 0.000239 0.003033 0.000762 0.002240 0.000185 0.002711 0.000636 -0.000309 -0.001552 -0.004282 -0.001211 -0.004166 0.004890 -0.003181
sent_3 0.002829 0.004399 0.002028 0.001179 -0.003772 -0.000644 -0.001955 -0.003224 0.000819 -0.001958 0.004283 0.003927 -0.002839 -0.004003 -0.003843 -0.000122 0.002467 -0.002752 -0.002535 0.003784 -0.000973 0.001371 -0.003343 -0.003510 0.000546 -0.000866 -0.003927 0.001284 0.000142 0.002100 -0.004169 0.002411 -0.002931 -0.000192 0.004053 -0.005056 -0.001907 0.003987 0.003259 0.001006 0.003679 0.004399 0.002570 0.004104 -0.004619 0.001458 0.002478 0.000898 0.003547 -0.005741 0.001225 0.003705 -0.002654 -0.003249 0.000919 -0.001731 0.003596 -0.000675 0.003196 0.005201 -0.002465 -0.003410 0.004623 0.000774 0.005108 0.001039 0.004981 0.000849 0.001341 -0.003929 -0.001662 -0.004065 -0.003827 0.003278 -0.004495 -0.001569 0.003578 0.001913 0.001879 -0.002965 -0.000416 0.000515 0.006187 -0.004432 -0.003176 -0.001822 0.002184 -0.001265 -0.004907 0.001682 -0.003303 0.004052 -0.002015 -0.004944 0.000842 0.004092 -0.001813 0.002816 0.000197 0.000427
sent_4 0.004615 0.002953 -0.004686 0.002050 -0.000332 0.004519 -0.002762 -0.002270 -0.004192 -0.000741 -0.003910 0.001354 0.003067 0.001965 0.002760 -0.001580 0.003447 -0.000755 0.003231 0.001267 -0.003502 -0.004220 -0.004706 -0.004390 -0.000454 -0.003801 -0.004707 0.002515 -0.001032 0.002412 -0.000393 -0.000490 -0.000203 -0.000204 0.002906 -0.000940 0.004066 -0.004641 0.002743 -0.003827 0.001213 -0.004892 0.000462 -0.004998 0.004579 0.004050 0.002938 0.004179 -0.003591 -0.003310 -0.002943 0.001060 0.004075 0.004992 0.002164 0.002334 0.004027 -0.000987 -0.002540 -0.003311 -0.003777 0.003092 -0.003598 -0.002400 0.003171 -0.001837 0.004813 -0.002352 0.000199 -0.001801 0.004121 -0.001418 -0.000621 0.000030 0.004358 -0.004679 0.002187 0.003906 -0.004696 0.000187 -0.001760 0.003612 0.000439 0.002056 -0.000390 0.001222 -0.002071 -0.004827 0.000820 -0.002068 0.000211 0.004069 -0.000760 -0.002485 -0.001271 0.004242 0.004459 0.003435 0.004174 -0.002724
sent_5 -0.004489 -0.001904 -0.001753 -0.002796 0.000788 -0.001484 0.002850 -0.003926 0.002104 -0.002540 0.000839 -0.001792 -0.004985 -0.002824 0.000683 -0.000132 0.000303 -0.003070 0.000676 0.005351 0.002906 0.001090 0.003903 0.004801 0.001408 -0.005715 -0.004411 -0.004284 -0.000675 -0.000637 0.004016 -0.003546 0.004543 0.002227 0.004652 0.001029 0.001479 -0.000073 -0.005131 -0.000723 -0.000342 0.002321 -0.001161 0.000070 -0.004349 -0.005119 0.003095 -0.002189 0.005626 -0.004093 -0.003455 0.002022 0.002414 -0.001532 -0.004443 -0.002064 0.000794 0.001785 0.003083 -0.003281 -0.005224 0.000344 0.003901 -0.004533 0.002141 0.001487 -0.000452 0.004583 0.002861 -0.005508 -0.000456 0.004538 0.002915 0.002579 0.002037 0.000555 -0.002469 0.000621 0.001573 -0.001188 0.003826 -0.003337 0.004154 -0.003958 0.001966 -0.000130 0.002793 -0.002577 -0.003606 0.004653 -0.002426 0.003540 0.002696 -0.003227 -0.003040 -0.002365 -0.004634 -0.001062 -0.004611 -0.004131
sent_6 0.001820 0.002977 -0.004186 -0.002713 -0.002889 0.004232 0.002059 0.000603 -0.001979 0.003378 -0.000664 0.004290 0.002147 -0.000200 -0.003669 0.004739 -0.003399 -0.002985 -0.000689 -0.000996 -0.003567 0.002239 -0.003113 0.001333 0.002521 -0.002819 0.001034 0.002553 0.001393 0.000962 -0.002001 0.002353 0.004441 -0.000746 0.002716 -0.004459 0.003386 -0.003118 -0.000940 -0.002073 -0.004168 0.004006 -0.001236 0.000239 0.000025 -0.003648 -0.002974 -0.004175 0.000008 -0.002303 -0.001273 -0.004030 0.002906 -0.003805 0.004956 -0.003176 0.000653 -0.004530 0.002833 -0.003106 0.000310 0.002355 -0.003588 0.000530 -0.002866 0.002583 0.002251 -0.003315 0.003496 -0.004766 0.003616 0.000512 -0.000939 0.002523 0.002166 0.004860 -0.002149 -0.004961 0.004301 0.003554 0.002252 0.000248 0.001939 0.002937 -0.001242 0.002683 0.002493 0.001209 -0.000909 0.001790 -0.004938 0.002671 0.003913 -0.002564 -0.003762 -0.002802 -0.001929 0.003832 0.000466 -0.002111
sent_7 -0.003480 -0.002299 0.001151 -0.001890 -0.000391 -0.000372 0.003284 -0.000535 -0.001490 0.001740 -0.002924 -0.000191 -0.001672 0.001232 0.004114 -0.000553 0.002777 -0.000507 0.001674 -0.003716 -0.000623 0.003972 0.001308 0.002499 -0.000010 0.000176 0.003443 -0.004387 0.000764 0.004296 0.000485 -0.002947 0.003639 -0.002437 0.001611 0.000488 0.004581 0.001164 0.003457 -0.005251 0.005000 -0.004268 -0.001599 0.004245 -0.004730 0.003146 0.003505 -0.000503 -0.002653 0.003397 0.000321 -0.004030 0.004374 0.004420 0.000081 0.003738 -0.001111 0.001880 -0.001142 -0.000056 -0.003081 0.004675 -0.002240 -0.003969 -0.003705 -0.004864 0.002239 0.000532 0.002427 0.000223 0.003033 0.001691 0.003005 -0.001193 0.001469 -0.003191 -0.001692 -0.003401 -0.000997 -0.002729 -0.000851 0.004902 -0.002196 0.005243 0.001572 -0.001301 0.003698 0.001520 -0.002200 0.002420 -0.000607 -0.001679 -0.001778 0.002109 -0.002251 0.002847 -0.001899 0.000372 -0.000131 0.003521
sent_8 0.003936 -0.002898 0.001072 0.004232 -0.000772 0.004283 -0.002594 0.000903 0.001661 -0.002692 -0.004918 -0.000818 0.004279 -0.001741 0.002418 -0.003342 -0.001485 -0.003566 0.002172 0.002151 0.001853 -0.002488 0.001737 -0.002552 -0.000565 -0.001794 -0.001711 -0.004417 0.001266 0.002572 0.000929 0.001500 -0.003178 -0.003718 0.000786 0.003442 -0.002978 -0.000436 -0.000664 -0.000070 -0.003280 -0.001638 -0.002627 0.003814 0.002892 -0.000894 0.001445 -0.003530 0.000487 -0.002518 0.003047 0.002321 0.001403 -0.003948 -0.000306 0.005115 0.004665 0.001398 -0.003377 0.001345 0.000244 -0.000205 -0.000606 0.001114 0.003733 0.002381 0.000874 0.004305 -0.004125 0.004768 -0.004605 -0.002717 -0.000846 -0.003651 0.001556 -0.004701 -0.002110 -0.004603 0.002039 0.001682 -0.000990 -0.003019 0.003065 -0.002147 0.002782 0.000203 0.000171 -0.005098 0.001095 -0.000886 -0.002935 -0.000024 -0.001246 -0.000362 0.004785 -0.001138 0.002340 0.000847 0.004106 -0.001590
sent_9 -0.003315 0.005171 -0.004392 0.005195 0.000004 -0.002155 0.004749 -0.005293 0.000280 -0.004652 0.001008 -0.003645 0.000345 0.004723 0.002161 -0.000362 0.002233 0.003295 -0.000147 0.000536 -0.003722 -0.000714 -0.004851 0.003451 0.000432 -0.001487 0.003457 0.000321 -0.001304 -0.001638 -0.005464 -0.001071 -0.004947 -0.002726 0.002053 0.004399 -0.004451 0.002315 -0.000711 0.004263 -0.003804 -0.003990 -0.002292 0.003802 -0.004389 0.002487 -0.001661 -0.003502 -0.003851 -0.002739 -0.004150 0.003984 -0.004882 -0.005364 -0.005858 -0.004534 0.002676 -0.001265 -0.001066 0.001250 0.004469 0.003749 0.003276 0.004702 -0.004098 -0.004798 -0.000432 -0.000713 0.006706 -0.000667 0.000083 0.005262 -0.001298 0.005256 -0.002287 -0.002282 -0.002156 0.000499 -0.002697 0.002209 -0.003258 -0.004842 0.006033 -0.005247 -0.002341 0.001611 -0.000225 -0.005565 0.002812 0.007615 0.002366 -0.000584 0.000707 -0.002055 0.000215 0.005628 -0.003020 0.001875 -0.001786 0.002793
sent_10 -0.001742 0.003898 0.002517 0.002626 -0.000305 -0.002892 -0.004585 -0.001782 -0.004629 0.001939 0.001704 -0.000695 0.002678 0.000360 -0.004601 -0.003652 -0.003066 -0.001643 -0.004477 0.001051 0.000121 0.001175 -0.000676 0.003477 -0.000459 -0.004846 0.003731 0.001562 0.003230 0.004518 -0.004491 -0.002649 -0.004367 -0.000783 0.003638 -0.004184 -0.000269 -0.003745 0.002729 0.003414 -0.004567 -0.000136 -0.002606 0.004525 0.004439 0.001139 0.004735 -0.001551 0.003979 -0.000654 -0.002642 0.004408 0.001842 -0.004351 0.003704 0.002014 0.001049 0.002324 -0.002466 0.001005 0.003146 -0.004459 -0.003695 0.003424 0.001183 0.000313 -0.002517 -0.002049 0.003727 -0.000783 -0.004356 0.003970 -0.002966 0.003262 0.003818 -0.000132 0.000985 0.000273 0.001248 0.003550 -0.002179 0.003838 0.000677 -0.003849 -0.002730 0.000960 -0.002606 -0.003686 -0.003382 0.003449 0.001022 0.004636 -0.001543 0.000956 0.000990 0.001157 -0.004408 0.002503 0.004482 0.000347
sent_11 -0.003329 0.003888 -0.004828 -0.001353 0.004063 -0.000109 0.003466 0.000223 0.003736 0.004284 -0.001506 -0.003823 0.001621 -0.000392 -0.005111 0.000969 -0.004643 -0.002234 0.002796 -0.005197 -0.003056 -0.004809 0.002950 0.001620 -0.001608 0.004099 0.000116 0.000392 0.000713 -0.001826 -0.003257 -0.001284 -0.003134 0.000127 0.003255 -0.004530 0.003883 0.003044 0.003169 0.004039 -0.004775 -0.000049 -0.001453 0.001897 -0.001583 0.002236 0.001575 0.001351 0.001641 -0.004831 0.000388 0.004866 0.003474 -0.004069 -0.004019 -0.001677 -0.000871 0.003332 0.001591 0.003743 -0.000535 -0.003940 -0.002581 -0.000480 -0.002887 0.002390 0.001090 0.002026 0.001873 -0.004942 -0.003074 0.000562 -0.003664 -0.003341 0.002359 0.002152 -0.001874 0.003715 -0.001229 0.004249 0.001543 0.000575 -0.001021 -0.001956 0.002439 -0.001223 0.003278 0.003246 -0.002228 0.004075 0.003454 -0.003410 0.004189 -0.003653 0.003403 0.002604 -0.002769 -0.003797 0.001561 0.003543
sent_12 0.003527 0.001353 0.004680 0.001151 -0.003306 -0.000292 -0.002213 0.005004 -0.001630 0.004793 -0.000023 -0.003047 -0.003993 -0.001437 -0.003571 0.001042 -0.000790 0.004718 0.004426 -0.003289 -0.000991 -0.000485 0.000737 0.002569 -0.000067 -0.001086 -0.002762 0.004083 -0.004877 0.003640 -0.003006 0.001916 -0.001319 0.004660 -0.003654 -0.003369 0.004223 0.000564 -0.001702 -0.005458 -0.002456 -0.003864 -0.002987 0.004093 0.004121 0.002044 0.000111 0.003548 -0.000092 -0.001406 -0.002072 0.004351 -0.000941 0.000471 -0.002018 0.004301 -0.001224 -0.002119 0.002023 -0.003392 -0.004204 0.003487 0.002112 0.001063 -0.002453 0.001121 0.001663 -0.001871 -0.004763 0.003988 -0.000291 0.002492 -0.002438 0.000897 -0.000389 -0.001523 -0.003436 -0.002768 -0.004329 -0.002150 0.002543 0.001501 0.001643 -0.004834 0.001852 0.000266 -0.002790 -0.003380 -0.003004 0.003255 0.004791 0.004657 -0.001936 0.002947 0.000513 0.003284 -0.000058 0.001364 0.003181 -0.004093
sent_13 0.000473 -0.001701 0.000958 0.004181 -0.000687 -0.000786 0.002915 0.001753 -0.001064 0.001907 -0.000999 -0.003523 -0.000145 -0.001573 -0.002279 0.004158 0.001877 0.000808 0.002471 0.000300 0.001963 0.004013 0.003976 -0.003753 -0.002543 -0.003817 0.004826 -0.002540 0.001634 -0.004380 -0.002395 0.000056 -0.003877 -0.000873 -0.000236 -0.001564 0.000779 0.000171 -0.000746 0.001596 0.001838 0.001745 0.001004 -0.001802 0.001429 0.004413 0.000798 0.005033 -0.000871 0.002820 -0.003619 0.001856 0.000427 -0.004252 -0.001895 0.000483 0.002222 -0.004209 0.000389 0.002818 0.001585 0.003997 -0.004600 -0.002420 0.003935 0.002734 0.000958 0.003072 0.003246 0.004733 0.004979 -0.003879 -0.004008 -0.004713 -0.004868 0.004728 -0.003795 0.003535 0.001726 -0.000324 -0.001674 -0.001261 -0.003275 0.004896 0.002585 -0.005045 -0.000253 -0.001650 -0.004349 0.002782 0.002950 -0.002319 0.002804 -0.001610 -0.001764 0.004074 0.005027 0.000050 0.004407 0.003976
sent_14 0.000180 -0.001273 0.002104 -0.000444 0.001052 0.004904 0.002739 -0.001657 -0.004110 -0.003151 0.000269 -0.000829 0.003007 0.004332 -0.003221 0.003601 0.004574 0.004595 -0.004621 -0.004424 -0.004942 -0.001873 -0.004443 -0.002061 -0.001440 0.004537 -0.000230 -0.002218 0.000030 0.001434 -0.003888 0.002581 0.003519 0.003442 0.003905 -0.001182 -0.000562 -0.003984 -0.002742 0.004713 -0.002154 0.004074 0.003906 0.004225 -0.003439 0.003797 0.001320 -0.002894 -0.001549 -0.003401 -0.000557 -0.004162 -0.003347 -0.003028 0.001910 0.000738 0.003733 -0.002554 0.001296 -0.004656 0.000162 0.003632 0.004841 -0.004901 -0.002472 -0.002762 -0.004525 -0.004898 -0.000098 -0.004545 -0.002217 0.001400 -0.002053 -0.002303 0.000905 -0.001195 0.002025 -0.000039 0.001332 -0.001466 -0.002130 -0.003668 0.004371 0.003048 0.004380 -0.003146 0.004332 0.004358 -0.002165 -0.002254 0.000514 -0.003147 -0.000579 -0.003147 0.004474 -0.000062 0.004639 0.001449 -0.000157 0.004677
sent_15 -0.003553 0.001524 0.001761 -0.000366 -0.004678 -0.000015 -0.000581 0.002893 -0.002543 -0.001122 -0.002707 0.001822 0.004758 -0.003416 0.002929 -0.002730 -0.004315 -0.003619 0.004480 0.004102 -0.002076 0.004515 0.003363 -0.000478 -0.000164 0.000761 -0.003689 -0.004932 -0.002407 -0.004509 0.001592 0.000519 -0.001687 0.002601 -0.002948 -0.002714 -0.001968 -0.003065 -0.004226 0.003681 -0.004020 0.001774 -0.004068 -0.004657 0.000457 0.003939 0.003917 -0.001605 -0.004422 0.002593 0.002425 0.004283 0.001751 0.002855 0.003854 -0.000289 0.000846 -0.000064 0.002010 0.001783 -0.000174 0.003539 0.000180 0.003315 -0.001875 -0.003315 0.004811 0.002608 -0.002123 0.000751 0.004542 -0.003963 -0.004244 0.001418 -0.002513 0.002535 0.000598 0.001517 -0.003921 -0.004161 0.001455 -0.000927 -0.003563 -0.001812 0.001595 -0.002825 0.003878 0.004047 0.004313 0.002982 -0.001160 0.003031 -0.002100 -0.001947 0.000982 0.001157 0.003531 -0.002188 0.002863 0.004253
sent_16 -0.005085 0.000204 0.001741 0.003778 -0.003443 0.003318 -0.001505 0.003520 -0.004724 -0.004108 0.004871 0.000968 -0.001177 -0.003498 0.000892 -0.004647 -0.001796 -0.001696 0.001099 0.001746 0.003353 0.004405 0.001164 0.001180 -0.000818 0.003997 -0.003669 0.003976 -0.001932 0.000899 0.001353 -0.002708 -0.003440 -0.000148 0.003775 0.001694 -0.003906 0.004102 -0.000352 0.004797 0.000418 -0.004080 -0.003406 0.003933 0.001716 0.003878 -0.001382 0.000105 0.002013 0.000224 -0.003735 0.000261 -0.002571 0.002758 0.004531 -0.004341 0.002666 -0.001756 0.001463 -0.002222 0.001214 -0.001114 -0.001632 0.004240 0.004833 0.001013 -0.002757 0.004673 0.003252 0.002230 -0.003056 0.003753 -0.002872 0.001851 0.002277 0.002318 -0.001300 0.002573 0.004038 0.000999 -0.003956 -0.003844 -0.002956 -0.004275 -0.004106 0.003054 -0.004721 -0.003296 0.003211 0.005893 0.000758 0.005522 -0.004431 0.004200 -0.002001 0.003378 0.002583 0.003793 -0.000209 0.004122
sent_17 -0.002022 0.003477 0.001145 0.004489 -0.004546 0.003049 0.000561 0.000678 -0.002795 -0.002066 -0.002604 -0.002484 0.003610 0.000043 -0.003017 0.002583 0.000335 0.001975 0.000143 -0.001025 0.005333 -0.004842 0.005379 0.003431 -0.001458 -0.002089 0.001123 -0.003426 0.003049 -0.002819 -0.001200 0.004318 0.004258 0.000888 0.002344 -0.001266 0.005355 -0.000956 -0.001806 -0.005583 0.005311 -0.000576 0.003127 0.001139 0.003089 -0.004326 0.004074 0.004731 -0.000159 0.005722 -0.000201 -0.000706 -0.000824 0.002651 -0.001113 0.003546 -0.005026 -0.004625 -0.004887 -0.004165 -0.000946 0.004307 -0.004729 0.001149 -0.000031 -0.001062 -0.003005 -0.003185 -0.006211 0.002761 0.001767 -0.001460 0.002587 -0.004877 0.004216 0.003390 0.002023 -0.001322 -0.000668 -0.000658 0.004121 0.003939 -0.001851 0.002271 0.004601 0.003978 0.001590 0.003371 -0.000704 0.002092 0.003805 -0.000280 0.003100 0.004016 0.003315 -0.004265 0.001451 0.004163 0.002557 -0.000662
sent_18 0.004592 -0.001617 -0.001358 0.005111 0.002589 0.003495 -0.005047 -0.001982 -0.002537 -0.001955 0.002559 0.002040 -0.001107 -0.001669 -0.000333 0.000347 0.000648 0.001356 -0.001031 0.003065 -0.002793 0.001773 0.003629 -0.004177 0.002592 -0.004978 0.000058 0.001403 -0.002652 0.004883 0.000287 -0.002784 0.002463 -0.004348 0.002120 -0.004434 0.000511 -0.002198 0.001207 0.002882 -0.000050 0.001783 0.002353 0.003808 0.000443 -0.000593 -0.000445 0.003319 0.002959 -0.004527 -0.001299 0.005913 -0.003686 0.002092 0.002524 -0.000128 -0.003604 -0.003597 0.004658 -0.004122 -0.001747 0.001485 -0.002080 0.005049 -0.002730 0.000141 0.001353 -0.002199 0.001108 -0.000716 0.002278 0.002199 -0.000850 0.002723 -0.000207 0.000072 0.001191 -0.003207 0.002883 0.001287 0.005033 -0.003078 0.001600 0.002008 0.000257 0.002752 -0.001035 0.000582 0.003393 -0.000823 0.002503 0.006031 -0.004568 -0.003432 -0.004016 0.003379 -0.005192 0.005250 -0.000793 0.003712
sent_19 -0.003281 0.000378 0.003765 0.001767 -0.001175 -0.000321 0.000714 -0.001559 -0.003100 -0.003897 -0.003263 -0.004687 -0.000419 0.002972 -0.002788 -0.004170 -0.000569 0.001211 -0.000665 0.003579 0.004207 0.004123 0.001130 0.000691 0.002156 -0.006235 0.004284 -0.003304 0.004007 0.004052 0.001856 -0.002510 -0.002952 -0.001046 0.005427 -0.000969 0.004081 -0.001153 0.000635 0.005532 0.001149 -0.004199 -0.001182 -0.000581 -0.000469 -0.002151 -0.003067 0.001224 0.002929 0.002111 -0.006055 0.005072 0.003031 -0.000069 -0.003704 -0.002511 0.000505 0.000118 0.000253 -0.000083 0.002730 0.004315 0.004217 0.003879 0.001671 0.004479 0.001385 0.001667 -0.000133 0.001091 -0.004784 -0.002737 -0.004381 0.002720 -0.002889 -0.001798 -0.005173 -0.002699 0.004816 0.000376 -0.003136 -0.000126 0.006713 0.001528 -0.001757 -0.001641 0.002549 -0.004128 -0.003830 -0.001524 0.003064 0.001279 0.000924 0.001590 0.002594 0.000256 -0.004130 0.003798 -0.004278 0.004005
sent_20 0.000912 0.003254 0.001110 -0.002774 -0.001918 0.000624 0.004750 -0.002781 0.000052 -0.001666 0.002714 0.003157 -0.000528 -0.002998 -0.003818 -0.003026 -0.002357 0.000756 0.003657 -0.003775 0.004891 0.001783 0.003058 0.004494 -0.001082 0.000748 0.001904 -0.000024 -0.001870 -0.004219 -0.001690 0.002770 0.001539 0.003348 -0.000550 -0.002549 0.001428 -0.002045 -0.004617 0.003535 -0.000645 -0.000682 0.002887 0.004380 -0.003891 -0.003284 -0.001904 -0.002357 -0.000282 0.003902 0.004649 -0.000022 -0.002484 -0.002563 0.002794 -0.002478 -0.000031 0.002541 -0.002917 -0.003533 -0.004449 -0.003737 0.003135 -0.004208 -0.002913 -0.004355 0.001692 -0.002855 -0.001720 -0.003346 -0.001202 -0.001225 -0.000013 -0.001336 -0.004114 0.002808 -0.003502 -0.000820 -0.002098 -0.002206 0.001629 0.000334 -0.003954 0.000613 -0.001107 0.001679 -0.002527 0.003994 0.000526 -0.001083 -0.002223 -0.003708 -0.000450 0.005057 -0.003541 -0.002616 0.003474 0.001599 -0.002344 -0.001842
sent_21 -0.000717 0.000682 0.002125 0.003402 0.001944 -0.002435 0.004327 0.003081 -0.002021 -0.002019 0.003783 -0.003702 0.001574 -0.002158 0.003679 -0.001363 0.002292 -0.003217 -0.000230 0.002992 -0.000833 -0.003414 0.001937 0.002257 -0.002365 -0.000218 0.004143 0.003615 0.002141 0.000665 0.003486 0.004099 -0.004934 -0.000815 0.000067 0.002448 -0.003997 -0.001128 -0.002136 -0.001084 0.000057 0.001564 0.000267 0.001056 0.001153 -0.000677 -0.005040 -0.002906 -0.002059 -0.003047 0.001734 0.000427 0.000095 -0.001393 0.001789 -0.003017 -0.005254 0.002354 -0.000733 0.001773 -0.002994 -0.004501 -0.001585 0.001810 -0.004145 -0.002843 -0.000529 0.001060 0.001953 -0.003660 0.001344 -0.001440 0.001855 -0.003363 0.000166 -0.003218 -0.004714 -0.000133 -0.003073 0.001271 0.000253 0.002845 -0.001750 0.005609 0.000499 -0.000469 0.002579 0.001084 -0.001113 -0.000898 -0.002887 -0.001498 -0.004813 -0.000188 -0.002182 0.000005 -0.004322 0.000527 -0.002150 0.000842
sent_22 0.002488 -0.001465 0.001466 -0.002877 0.005115 -0.001989 0.004562 -0.002233 -0.000323 0.002895 0.002068 0.002141 -0.000211 0.002579 0.005114 -0.000590 0.000240 -0.004665 -0.001103 -0.000351 0.004566 -0.003840 0.003474 -0.000110 0.000732 -0.004165 -0.003458 -0.002586 -0.004890 0.001267 0.004463 0.000473 0.000736 0.001643 -0.003015 -0.001050 0.001101 0.002888 -0.003063 -0.002492 0.002772 -0.001669 -0.003876 -0.003601 -0.002387 0.000010 0.001279 0.004157 0.003508 -0.000935 0.004013 -0.003649 -0.001159 -0.001105 -0.000317 -0.002673 -0.002430 -0.003945 0.004310 -0.000623 0.004340 0.002391 -0.001196 0.002122 0.000991 -0.001480 0.000095 0.001939 -0.003165 -0.004272 -0.002007 0.002270 0.004641 0.000340 -0.003839 0.002661 0.000428 0.002444 0.003912 0.004180 0.001447 0.003642 0.001009 0.003833 0.004467 0.003762 0.004238 -0.000288 -0.003579 0.001700 0.000837 -0.000301 0.002946 -0.004254 0.003852 -0.005272 0.002915 0.000974 0.001176 -0.001125
sent_23 -0.002245 0.000094 0.003858 0.000653 0.001631 -0.000586 0.004721 0.002425 -0.001451 0.001535 0.000426 0.003841 -0.002249 -0.003919 -0.003087 -0.001130 0.003541 -0.002292 0.001264 0.001236 -0.000920 -0.004497 0.002448 -0.002043 -0.001015 -0.001228 0.001636 -0.004137 0.000499 -0.004846 0.004830 0.000984 -0.001159 -0.003533 0.001969 0.004058 -0.001819 0.002665 -0.002125 0.004572 0.002023 0.001250 0.004307 -0.002310 0.004236 0.001781 0.002714 0.000716 0.003339 0.001983 -0.003534 0.001125 -0.002207 0.004159 -0.003018 -0.002143 -0.004523 -0.000524 0.000576 0.000736 0.004054 -0.001526 -0.000525 0.003512 0.000768 0.001540 -0.002216 -0.000125 0.001210 -0.003666 -0.004671 -0.003866 -0.000225 -0.004760 0.001262 -0.004024 -0.002490 -0.000735 -0.003842 -0.002294 -0.004789 0.004850 0.001116 -0.001216 -0.004735 -0.001102 -0.000474 0.004310 -0.002215 0.001148 0.001652 -0.003140 0.000058 0.002865 -0.004034 0.001060 -0.004739 -0.004930 -0.004405 -0.000186
